tree
version=v3
num_class=1
num_tree_per_iteration=1
label_index=0
max_feature_idx=6
objective=binary sigmoid:1
feature_names=gender age class embarked fare sibsp parch
feature_infos=-1:2:1 [0.16666666669999999:74] -1:3:7:1:5:2:6:4 -1:4:2:1:3 [0:512.0607] [0:8] [0:9]
tree_sizes=3312 3273 3280 3287 3285 3269 3296 3290 3323 3294

Tree=0
num_leaves=31
num_cat=2
split_feature=0 2 4 1 1 4 4 4 1 4 5 1 1 1 4 6 6 5 1 1 1 1 1 4 4 1 1 4 1 1
split_gain=488.286 57.9799 35.9206 29.4764 24.4676 18.4386 9.35506 12.6041 15.9395 8.85651 8.63236 8.18437 8.99624 7.95847 8.95062 7.20398 5.88125 5.84461 5.55632 5.4157 4.60162 3.67606 5.14465 3.32733 2.24738 2.0796 3.43613 2.00475 1.9234 2.05938
threshold=0 1 48.060000000000009 9.5000000000000018 54.500000000000007 30.115550000000002 7.0504000000000007 10.095150000000002 27.500000000000004 23.070000000000004 1.0000000180025095e-35 21.500000000000004 5.5000000000000009 32.500000000000007 7.165350000000001 1.5000000000000002 1.0000000180025095e-35 1.0000000180025095e-35 28.500000000000004 28.500000000000004 20.500000000000004 42.500000000000007 35.500000000000007 7.1503000000000005 8.015150000000002 19.500000000000004 22.500000000000004 7.0100500000000006 35.500000000000007 43.500000000000007
decision_type=1 1 2 2 2 2 2 2 2 2 2 2 2 2 2 2 2 2 2 2 2 2 2 2 2 2 2 2 2 2
left_child=1 4 6 9 5 21 -2 8 25 -3 28 12 -12 14 20 -4 17 -7 -13 -16 -5 22 -1 -22 -21 -8 -27 -15 -9 -30
right_child=2 3 15 13 -6 16 7 10 -10 -11 11 18 -14 27 19 -17 -18 -19 -20 24 23 -23 -24 -25 -26 26 -28 -29 29 -31
leaf_value=-0.13388021697898345 0.28841218276965797 0.019908914107478637 0.48110154699062879 -1.0917713441194961 -1.2262353686666447 -1.0357947141563133 -0.0018113040816813974 0.19702054401808633 -0.99477387142065754 -0.72340521947708625 -0.059731885919439454 0.33123204148542928 -0.76156643615665087 -1.0974539018857925 -1.1813398196318627 -0.036503319244921451 -0.34179305268143911 -0.55688354669353113 -0.20676105519990251 -1.1141760782758288 -0.92174632018106584 0.099549714134396172 -0.56583632480017387 -0.60128932610247909 -0.79278924980356746 -0.51987873051940769 -0.051767805916747456 -1.2126044308874095 -0.23494164597865785 0.14885116177010682
leaf_weight=12.665564030408865 7.6430127769708625 5.0225512534379941 24.020897299051288 26.422987028956413 7.4246409833431235 9.3899871259927803 4.8041794598102596 14.630910173058512 5.8960384279489508 5.2409230470657349 5.0225512534379977 4.8041794598102561 6.9878973960876465 72.717807278037071 52.409230470657349 5.240923047065734 5.240923047065734 7.2062691897153845 8.5164999514818174 5.4592948406934729 102.85311479866505 5.022551253437995 6.7695256024599066 5.4592948406934729 9.6083589196205121 5.8960384279489499 4.3674358725547791 36.249717742204666 4.3674358725547773 4.585807666182518
leaf_count=58 35 23 110 121 34 43 22 67 27 24 23 22 32 333 240 24 24 33 39 25 471 23 31 25 44 27 20 166 20 21
internal_value=-0.743878 -0.958681 0.0107885 -1.01809 -0.582235 -0.444036 -0.131745 -0.1777 -0.437196 -0.359656 -0.0664871 -0.228625 -0.468072 -1.04862 -1.00166 0.388396 -0.711194 -0.827846 -0.0127308 -1.12058 -0.942105 -0.205503 -0.284337 -0.905594 -0.909234 -0.219013 -0.320683 -1.13576 0.107661 -0.0383648
internal_weight=0 375.163 106.784 321.443 53.7195 46.2948 77.522 69.879 20.9637 10.2635 48.9153 25.3311 12.0104 311.18 202.212 29.2618 21.8372 16.5963 13.3207 67.4769 134.735 24.4576 19.4351 108.312 15.0677 15.0677 10.2635 108.968 23.5842 8.95324
internal_count=2207 1718 489 1472 246 212 355 320 96 47 224 116 55 1425 926 134 100 76 61 309 617 112 89 496 69 69 47 499 108 41
cat_boundaries=0 1 2
cat_threshold=4 18
is_linear=0
shrinkage=1


Tree=1
num_leaves=31
num_cat=4
split_feature=0 2 4 2 1 1 4 1 2 1 4 1 1 5 4 4 4 5 1 4 4 1 4 1 1 1 4 1 1 1
split_gain=157.197 27.8729 24.8086 23.1394 13.8026 9.72927 6.40841 5.32226 8.58417 4.73196 4.71876 3.58505 3.57522 2.95292 2.8085 5.54888 2.02872 1.95714 5.07989 1.80508 1.63607 5.11923 1.58312 1.6421 1.54007 2.07421 8.95709 1.49166 1.487 5.082
threshold=0 1 23.070000000000004 2 4.5000000000000009 54.500000000000007 39.575750000000006 32.500000000000007 3 36.500000000000007 7.0208000000000004 31.500000000000004 27.500000000000004 1.0000000180025095e-35 7.165350000000001 15.030550000000002 8.1302000000000021 1.5000000000000002 16.500000000000004 13.090200000000001 1.0000000180025095e-35 31.500000000000004 22.550300000000004 38.500000000000007 23.500000000000004 25.500000000000004 7.1710000000000003 35.500000000000007 23.500000000000004 27.500000000000004
decision_type=1 1 2 1 2 2 2 2 1 2 2 2 2 2 2 2 2 2 2 2 2 2 2 2 2 2 2 2 2 2
left_child=3 2 9 5 -5 6 20 8 28 14 -10 17 -8 -14 -2 16 -16 18 -12 -9 21 -1 23 -3 -20 26 -26 -22 -6 -30
right_child=1 22 -4 4 7 -7 12 19 10 -11 11 -13 13 -15 15 -17 -18 -19 24 -21 27 -23 -24 -25 25 -27 -28 -29 29 -31
leaf_value=0.13147898402681488 0.41889941935582248 0.42758863197599517 -0.5629109307460155 0.39163216369874915 0.012950257610088702 -0.38319873664646842 0.23821584417854533 -0.27291927683257589 -0.47692734989590879 -0.17150580394142495 0.14767788282944647 0.10115428967537426 -0.3514768394095335 0.026819347759261099 0.19734242667533314 0.4048939194465529 -0.091171265223444001 -0.44983950491175473 -0.32494192999786575 -0.44594088438212726 0.35603674664777385 0.58886552443155193 0.64883603717629335 0.68783531465151704 0.39848113506224103 -0.26604813239291247 -0.37911841375349159 0.081251185288729225 -0.25394889619703215 -0.0044189005941725297
leaf_weight=7.7153760492801684 11.791413635015486 12.297774955630304 7.8451730757951728 6.1390238404273978 29.174654215574265 5.9630615711212149 5.9267058670520809 80.849348708987236 15.321824967861174 4.635011374950408 5.1386573761701575 4.7659433782100669 5.755303889513014 7.7433952689170837 6.8823634833097485 10.860506758093832 8.9973316639661771 7.5445356070995322 34.142698109149933 10.954738259315489 4.8110267370939246 7.9490437209606171 48.119963988661766 5.6668466329574576 4.1257616579532606 25.111884340643883 5.5699249356985092 9.2151760309934598 20.97119028866291 34.612644165754318
leaf_count=31 50 50 33 26 148 34 26 437 77 21 25 23 29 33 29 45 38 39 183 62 20 33 200 23 20 128 31 40 103 170
internal_value=0 0.384656 0.0764375 -0.152817 -0.194789 0.0840299 0.157863 -0.214725 -0.175912 0.210341 -0.247968 -0.236065 -0.0207639 -0.134471 0.256274 0.184562 0.0338725 -0.255752 -0.235988 -0.293565 0.274732 0.363584 0.530702 0.509682 -0.264582 -0.205375 -0.04823 0.175503 -0.0538289 -0.0985639
internal_weight=0 117.096 51.0118 339.502 284.423 55.0791 49.116 278.284 186.48 43.1666 101.721 86.3994 19.4254 13.4987 38.5316 26.7402 15.8797 81.6335 74.0889 91.8041 29.6906 15.6644 66.0846 17.9646 68.9503 34.8076 9.69569 14.0262 84.7585 55.5838
internal_count=2207 489 216 1718 1472 246 212 1446 947 183 526 449 88 62 162 112 67 426 387 499 124 64 273 73 362 179 51 60 421 273
cat_boundaries=0 1 2 3 4
cat_threshold=4 8 18 160
is_linear=0
shrinkage=0.4


Tree=2
num_leaves=31
num_cat=4
split_feature=0 2 2 4 1 1 2 1 1 1 4 1 4 4 1 1 4 4 5 1 1 1 4 4 4 4 4 1 1 1
split_gain=68.0184 14.7909 11.0139 10.3852 6.90805 3.63905 3.06099 4.41703 4.08188 3.59775 3.48247 2.83309 2.79868 3.99272 2.51404 4.62067 2.05112 1.77332 1.41729 1.41581 2.69535 1.68746 1.25481 1.82886 1.20801 1.1736 1.03726 0.982431 1.58754 0.959671
threshold=0 1 2 23.070000000000004 9.5000000000000018 25.500000000000004 3 27.500000000000004 54.500000000000007 29.500000000000004 39.575750000000006 16.500000000000004 55.635550000000002 13.590000000000002 21.500000000000004 27.500000000000004 27.165000000000003 26.025000000000002 1.0000000180025095e-35 34.500000000000007 28.500000000000004 30.500000000000004 5.5204500000000012 7.1758500000000014 7.1455000000000011 7.1703500000000009 7.1758500000000014 21.500000000000004 23.500000000000004 48.500000000000007
decision_type=1 1 1 2 2 2 1 2 2 2 2 2 2 2 2 2 2 2 2 2 2 2 2 2 2 2 2 2 2 2
left_child=2 3 5 11 16 27 8 -8 10 -9 -7 -2 13 19 25 26 -4 -3 -12 20 -6 24 29 -24 -22 -13 -16 -1 -29 -21
right_child=1 17 4 -5 12 6 7 9 -10 -11 18 14 -14 -15 15 -17 -18 -19 -20 22 21 -23 23 -25 -26 -27 -28 28 -30 -31
leaf_value=0.25232365336866819 0.33867142436029607 0.35901763484403199 0.28286725166114468 -0.4072813381086155 -0.19081300428273595 0.16464824973357303 -0.45407924081857021 0.21485301334328791 -0.31058897545572245 -0.13148679498472002 -0.23927470920323915 0.051706053144261022 0.1642106062252518 -0.3618493427680331 0.45913186706964582 -0.018707927207802077 -0.072687979806947411 0.50360000169049002 0.02264898970652094 -0.21716123466982318 -0.045782068762197307 -0.13278813570327355 -0.4922302127743195 -0.20931100857596979 0.1919910756605166 -0.21519276610777838 0.21871264943060981 -0.0367878657694828 0.20656047065898384 -0.0063383087147279903
leaf_weight=7.6769287288188961 8.1197828650474531 22.580924227833748 6.4671531170606595 6.7654867470264426 82.83589181303978 27.364352226257324 5.76680564880371 5.6900413632392874 4.7222341001033774 30.643742129206657 5.501743704080579 5.0849794596433622 3.5214436054229727 20.544430166482925 5.3679025322198886 12.766150698065756 4.3367675244808197 34.024740010499954 8.2801492214202881 23.906319141387943 8.7575066238641721 19.935872465372086 6.3878735303878775 8.547309070825575 5.6079398691654196 5.4733452051877975 6.1732579916715622 8.9216113239526766 8.2610194832086545 4.0382295846939078
leaf_count=36 34 101 27 33 483 114 32 28 34 175 32 21 22 137 22 57 20 172 35 148 45 110 42 57 32 23 26 43 41 25
internal_value=0 0.2623 -0.108769 0.0444428 -0.162381 -0.00162926 -0.0399616 -0.104131 0.0341861 -0.0772484 0.0820634 0.125879 -0.188958 -0.195846 0.076322 0.147113 0.140145 0.378974 -0.0819112 -0.174532 -0.151768 -0.0574762 -0.23672 -0.330317 0.0470391 -0.086652 0.330534 0.13336 0.0802085 -0.186695
internal_weight=0 106.357 307.715 49.7509 194.887 112.829 87.9691 42.1006 45.8685 36.3338 41.1462 42.9854 184.083 180.561 34.8656 24.3073 10.8039 56.6057 13.7819 160.017 117.137 34.3013 42.8797 14.9352 14.3654 10.5583 11.5412 24.8596 17.1826 27.9445
internal_count=2207 489 1718 216 1148 570 450 235 215 203 181 183 1101 1079 149 105 47 273 67 942 670 187 272 99 77 44 48 120 84 173
cat_boundaries=0 1 2 3 4
cat_threshold=4 8 50 18
is_linear=0
shrinkage=0.4


Tree=3
num_leaves=31
num_cat=4
split_feature=0 2 2 1 5 4 4 1 1 4 1 4 4 1 1 2 1 1 1 4 1 1 4 4 5 4 4 1 1 1
split_gain=30.8854 8.36695 6.14585 5.20118 15.5993 4.89227 4.72509 2.92813 2.48387 2.31556 2.29506 1.97896 1.94199 4.12501 1.43276 2.03008 5.21516 3.00173 1.90457 1.20099 2.41457 1.37942 1.11298 1.01925 0.963685 2.42828 0.99577 0.969994 2.98065 1.2519
threshold=0 1 2 14.500000000000002 2.5000000000000004 6.190500000000001 24.560200000000005 17.500000000000004 34.500000000000007 7.1455000000000011 31.500000000000004 26.025000000000002 15.125850000000002 31.500000000000004 36.500000000000007 3 31.500000000000004 27.500000000000004 32.500000000000007 13.125300000000001 19.500000000000004 23.500000000000004 7.1758500000000014 148.63025000000002 1.0000000180025095e-35 37.550000000000004 29.570000000000004 43.500000000000007 39.500000000000007 40.500000000000007
decision_type=1 1 1 2 2 2 2 2 2 2 2 2 2 2 2 1 2 2 2 2 2 2 2 2 2 2 2 2 2 2
left_child=2 6 14 4 -4 -5 9 -7 10 -2 -9 -3 13 19 15 16 17 -1 -17 20 -11 -22 -10 -13 25 26 27 28 -16 -30
right_child=1 11 3 5 -6 7 -8 8 22 12 -12 23 -14 -15 24 18 -18 -19 -20 -21 21 -23 -24 -25 -26 -27 -28 -29 29 -31
leaf_value=0.14975299913191831 0.30817608112043526 0.25569281710903885 0.40745680824067271 -0.44288136576024917 -0.52399513210236237 -0.48607141292766021 -0.34855286921786044 -0.13334406248943537 -0.45591413471903269 0.31510630290141695 0.10126344646670149 0.46247567678356377 0.197330001521031 -0.36042826155702329 -0.16866309791558029 -0.0056752876370618939 0.44538932434461764 -0.17199714982339678 -0.16215790084231851 -0.12459225956082925 -0.12252578673160811 0.14413561273098446 -0.21881888494681415 0.26372396209945931 0.058414763371601786 -0.39491109406741121 0.1377516631458949 -0.16141640813736385 0.26216436312230457 0.0020960204151879076
leaf_weight=11.140008628368383 5.8656328171491614 19.776135951280594 8.220476031303404 10.963963769376276 4.4254563152790061 4.1589848026633254 4.6818069517612448 55.357330165803432 4.1931621059775379 5.7516800165176489 7.5858556926250449 20.997941926121715 9.1432092636823636 4.6162255853414527 13.473955363035204 78.629627659916878 5.9232405871152869 7.950223207473754 14.784646973013876 4.7784631103277198 6.6558731198310834 5.8159582763910294 12.954982146620749 5.1386711597442618 7.425815798342227 4.0011754110455504 3.4156033843755713 16.848637327551842 4.8263458311557752 7.664710134267807
leaf_count=46 26 101 38 80 24 30 28 372 39 24 46 138 41 22 85 421 27 34 101 21 28 26 109 34 36 28 18 108 30 46
internal_value=0 0.189643 -0.0757122 -0.145992 0.0814943 -0.191539 0.0271512 -0.15883 -0.141837 0.0747849 -0.105069 0.288357 0.0375452 -0.0153528 -0.0230615 0.000804617 0.0839386 0.0157585 -0.0274981 0.0538998 0.100703 0.00182576 -0.276795 0.423399 -0.0760832 -0.0959667 -0.0700928 -0.0866743 -0.0381744 0.102582
internal_weight=0 93.2216 283.944 107.86 12.6459 95.2143 47.3088 84.2503 80.0913 42.627 62.9432 45.9127 36.7614 27.6182 176.084 118.428 25.0135 19.0902 93.4143 23.002 18.2235 12.4718 17.1481 26.1366 57.6562 50.2304 46.2293 42.8136 25.965 12.4911
internal_count=2207 489 1718 738 62 676 216 596 566 188 418 273 162 121 980 629 107 80 522 99 78 54 148 172 351 315 287 269 161 76
cat_boundaries=0 1 2 3 4
cat_threshold=4 8 178 18
is_linear=0
shrinkage=0.4


Tree=4
num_leaves=31
num_cat=4
split_feature=0 2 2 4 4 4 1 1 1 6 4 4 4 4 4 4 6 1 1 4 4 4 1 1 4 1 1 4 4 2
split_gain=14.0592 4.66947 3.08599 3.66407 2.55933 2.1713 2.13842 2.0323 1.74301 1.64377 2.45867 1.63303 1.49063 1.60542 1.35097 1.34854 1.93106 1.0466 2.60589 1.00502 3.8722 2.2469 2.76408 1.30455 2.24352 2.84765 0.996489 1.334 1.08923 1.05744
threshold=0 1 2 6.190500000000001 23.070000000000004 31.595650000000003 4.5000000000000009 21.500000000000004 45.500000000000007 1.5000000000000002 55.635550000000002 13.590000000000002 134.61040000000003 87.550000000000011 148.63025000000002 15.125850000000002 1.0000000180025095e-35 38.500000000000007 34.500000000000007 7.165350000000001 7.1758500000000014 7.1503000000000005 23.500000000000004 20.500000000000004 9.0954000000000015 28.500000000000004 32.500000000000007 55.130500000000005 28.100450000000006 3
decision_type=1 1 1 2 2 2 2 2 2 2 2 2 2 2 2 2 2 2 2 2 2 2 2 2 2 2 2 2 2 1
left_child=2 4 12 -4 -2 7 -5 -3 9 10 11 17 13 26 -7 -13 -17 18 19 21 -21 22 -8 -22 25 -25 28 29 -1 -28
right_child=1 5 3 6 -6 14 8 -9 -10 -11 -12 15 -14 -15 -16 16 -18 -19 -20 20 23 -23 -24 24 -26 -27 27 -29 -30 -31
leaf_value=-0.0019793699566334568 0.05285614853307187 0.44484566143368531 -0.369798292262495 0.15268869985089359 -0.2560540776916671 0.45906956108833752 -0.25175485016100824 0.1324247856286391 -0.35685125968444464 -0.35132142809603611 0.2833426438615409 -0.44291431027004607 -0.26391077208864439 0.22979446189397229 0.19783634001372577 -0.25796095071244657 0.12425531999510414 0.15144828340436242 -0.45228198016675397 -0.33903593348035954 0.15121854084059963 0.22256242264866449 0.091666697055464444 -0.46356057939023004 0.067762822029904565 0.022583174820289507 0.030156049178162971 -0.2884963394827032 0.16975824700080452 -0.068461312442703634
leaf_weight=88.513500183820724 39.958063244819641 4.1491811424493816 8.3646494895219785 5.3370941728353491 4.8075358271598807 11.81059403717518 7.1796150356531161 16.902696661651134 4.289263851940631 3.8022562041878691 2.8395691365003577 3.3021237254142752 3.8040089756250373 4.3268454745411864 4.3282058835029593 7.4552453458309156 2.9525134041905403 3.322413131594657 2.8471165448427191 8.2546427845954913 5.4972478896379497 5.6995716691017142 7.8496937304735184 4.0168282389640835 8.4802120849490148 3.7070756256580353 22.226541012525558 3.6684049144387236 6.3316156119108191 42.584493413567543
leaf_count=463 183 24 82 26 33 111 55 104 45 31 16 27 20 23 34 66 25 35 29 61 46 31 47 34 60 22 113 20 28 313
internal_value=0 0.137186 -0.0522422 -0.10584 0.0160875 0.219582 -0.0926012 0.194001 -0.108665 -0.0948769 -0.0815933 -0.0962786 -0.0154114 -0.0106923 0.38901 -0.220196 -0.149532 -0.0663973 -0.0799177 -0.0590009 -0.105856 0.0087107 -0.0723884 -0.0171601 -0.0742825 -0.230237 -0.0170633 -0.0538337 0.00948539 -0.0405514
internal_weight=0 81.9563 266.653 95.1971 44.7656 37.1907 86.8325 21.0519 81.4954 77.2061 73.4039 70.5643 171.455 167.651 16.1388 13.7099 10.4078 56.8544 53.532 50.6849 29.956 20.7289 15.0293 21.7014 16.2041 7.7239 163.325 68.4794 94.8451 64.811
internal_count=2207 489 1718 738 216 273 656 128 630 585 554 538 980 960 145 118 91 420 385 356 223 133 102 162 116 56 937 446 491 426
cat_boundaries=0 1 2 3 4
cat_threshold=4 8 178 18
is_linear=0
shrinkage=0.4


Tree=5
num_leaves=31
num_cat=5
split_feature=3 1 0 2 4 5 1 2 1 6 1 1 4 0 4 4 4 4 4 4 1 1 4 4 5 1 4 1 1 1
split_gain=6.58395 3.06829 2.87701 3.13875 2.61307 2.38479 5.62007 2.37049 2.68038 1.98008 2.82242 2.56844 2.34611 1.86717 1.82757 8.95572 3.63821 2.15023 3.35184 2.92853 1.50532 1.40291 1.38565 2.41838 1.37957 1.49802 1.07995 1.06114 1.04377 2.5768
threshold=0 15.500000000000002 1 2 7.1052500000000007 2.5000000000000004 13.500000000000002 3 15.500000000000002 1.0000000180025095e-35 24.500000000000004 27.500000000000004 14.085050000000001 4 60.515300000000003 52.055050000000008 80.585100000000011 10.100200000000003 26.050400000000003 30.565550000000005 23.500000000000004 43.500000000000007 26.025000000000002 148.63025000000002 1.0000000180025095e-35 38.500000000000007 28.100450000000006 33.500000000000007 21.500000000000004 19.500000000000004
decision_type=1 2 1 1 2 2 2 1 2 2 2 2 2 1 2 2 2 2 2 2 2 2 2 2 2 2 2 2 2 2
left_child=1 -1 3 -2 -5 6 -6 8 -4 10 12 -12 -3 -13 15 17 -16 28 21 -20 -11 27 24 -24 25 -9 -15 -19 29 -8
right_child=2 9 7 4 5 -7 14 22 -10 20 11 13 -14 26 16 -17 -18 18 19 -21 -22 -23 23 -25 -26 -27 -28 -29 -30 -31
leaf_value=0.44298045358160715 -0.005145923074609462 0.091865182480130175 -0.30415494049217762 -0.29633028020535596 0.31701124613002096 -0.375180569874694 -0.11821986965490779 0.069462093502314068 0.011890173496720925 0.53486934005393827 0.44207432063765895 0.29253337868595558 -0.39725401789434317 -0.15959565850742877 -0.59306310687885699 0.58055698607449968 -0.030910000591383126 -0.31311035551411148 0.12434941197904736 -0.25725769784519587 0.15977548208964862 -0.55574085927436589 0.44811013027707225 -0.025781387550302466 -0.10535778027919201 0.38023031017082981 0.095034055860458461 -0.066628393391514371 -0.087011746882740673 0.28211399683746452
leaf_weight=5.4815552830696097 134.12615890800953 2.9802043884992626 4.9488370642065993 10.653522085398434 5.5604975968599311 4.353219397366046 5.6804690733551961 7.4296150952577609 32.426325455307961 2.7772318646311751 3.7083142250776318 4.3279538378119469 3.3136860355734825 4.8084219396114332 3.3947069495916358 3.1436757147312155 4.0273842439055443 11.161415927112108 7.7034211978316289 5.5256336778402328 4.4625477343797684 2.8944377452135077 5.7702909559011442 2.4565229266881943 3.8156647086143485 3.7266216576099396 5.9787807017564774 3.728073224425315 25.925761599093676 4.701783113181591
leaf_count=28 800 24 31 118 27 32 49 48 154 18 25 46 26 37 20 14 23 91 39 39 34 31 67 22 22 26 33 40 205 38
internal_value=0 0.13149 -0.0282506 -0.049437 -0.0991794 -0.0865535 -0.0714966 0.048433 -0.0236339 0.119358 0.0662334 0.143768 -0.165652 0.0705818 -0.099233 -0.0793472 -0.288027 -0.110163 -0.187512 -0.0350438 0.303664 -0.300929 0.122096 0.306606 0.102261 0.173271 -0.0184678 -0.251395 -0.0440936 0.0630783
internal_weight=0 37.8387 293.154 232.58 98.454 87.8005 83.4473 60.5739 37.3752 32.3571 25.1174 18.8235 6.29389 15.1152 77.8868 70.4647 7.42209 67.321 31.013 13.2291 7.23978 17.7839 23.1987 8.22681 14.9719 11.1562 10.7872 14.8895 36.308 10.3823
internal_count=2207 271 1936 1566 766 648 616 370 185 243 191 141 50 116 589 546 43 532 240 78 52 162 185 89 96 74 70 131 292 87
cat_boundaries=0 1 2 3 4 5
cat_threshold=4 4 176 8 2
is_linear=0
shrinkage=0.4


Tree=6
num_leaves=31
num_cat=3
split_feature=0 4 2 4 4 4 5 1 1 4 1 4 4 1 1 1 2 4 4 4 4 1 4 1 1 4 1 4 1 4
split_gain=3.4143 2.8612 1.75937 1.58752 1.49809 1.53656 1.47126 3.95992 3.57877 1.43578 1.89514 1.32955 1.2445 1.27997 2.36 1.21769 1.20862 1.18466 1.45746 1.1438 4.28284 1.20668 1.12917 1.19785 2.43064 1.12455 1.0869 1.08361 1.00132 0.924892
threshold=0 21.565350000000006 1 23.070000000000004 17.580000000000002 15.070550000000003 2.5000000000000004 14.500000000000002 17.500000000000004 31.060750000000002 33.500000000000007 134.61040000000003 13.125300000000001 19.500000000000004 25.500000000000004 31.500000000000004 2 13.590000000000002 10.095150000000002 55.040500000000009 58.13535000000001 44.500000000000007 39.575750000000006 21.500000000000004 20.500000000000004 30.055250000000004 18.500000000000004 20.045150000000003 31.500000000000004 7.1703500000000009
decision_type=1 2 1 2 2 2 2 2 2 2 2 2 2 2 2 2 1 2 2 2 2 2 2 2 2 2 2 2 2 2
left_child=2 4 15 -3 5 12 7 27 -9 10 -5 16 13 -2 29 -1 17 18 -10 22 -21 -22 23 24 26 -25 -18 -4 -16 -15
right_child=1 3 6 9 -6 -7 -8 8 11 -11 -12 -13 -14 14 28 -17 19 -19 -20 20 21 -23 -24 25 -26 -27 -28 -29 -30 -31
leaf_value=0.01675616270782122 0.18627070098232087 0.53140374404914448 0.09255963995052284 0.18999672245392341 -0.18992720198625801 0.2447181103832585 -0.29323163743325076 -0.37075239950102046 -0.31600782847382186 0.24604334133548003 -0.21226317986822876 -0.31066497938188986 -0.17197396621773256 -0.041814729752738811 0.22361758287164585 0.24353608011505182 0.16325100110453333 -0.31360053959776163 -0.018090572130954798 0.51145061324018204 -0.17247359527616021 0.1279771277683969 -0.246489643059912 -0.041501724570178422 0.23647934280184368 0.16154179048943851 -0.083744145015407168 0.38250790812837798 0.010800985859884975 -0.27449772747641438
leaf_weight=7.649703785777092 7.6158933714032164 2.0170144438743618 4.1003287434577924 4.5599185451865223 4.9518544226884833 5.2713920548558226 3.5489657223224631 5.2319459877908221 3.6116226091980961 11.888923600316046 3.1812383681535721 2.7819519937038413 4.9873013570904723 6.6781930327415484 6.490913197398184 7.5050185918807983 3.658866178244355 5.9921915829181662 9.641315642744301 3.0315691977739325 4.8783084377646428 3.8085189424455166 3.6688253730535498 148.41787054389715 8.2579093165695685 4.4965657219290724 12.903831128031014 4.1491937637329102 7.7740733101963997 4.6270198971033096
leaf_count=31 38 12 23 41 26 25 32 47 62 162 24 17 24 31 33 35 28 75 87 13 24 25 25 1010 50 25 89 20 52 21
internal_value=0 0.0725931 -0.0274467 0.193474 0.0185249 0.0422843 -0.0361072 -0.0336952 -0.0438802 0.158751 0.0246875 -0.0359315 0.0143301 0.0423284 -0.000543731 0.0777557 -0.0323325 -0.109245 -0.0992775 -0.0180753 0.102106 -0.0407486 -0.0268353 -0.0223012 0.0592056 -0.0355311 -0.0291804 0.238393 0.107638 -0.137048
internal_weight=0 70.0437 247.335 21.6471 48.3966 43.4448 232.18 228.631 220.381 19.6301 7.74116 215.149 38.1734 33.1861 25.5702 15.1547 212.367 19.2451 13.2529 193.122 11.7184 8.68683 181.404 177.735 24.8206 152.914 16.5627 8.24952 14.265 11.3052
internal_count=2207 489 1718 239 250 224 1652 1620 1577 227 65 1530 199 175 137 66 1513 224 149 1289 62 49 1227 1202 167 1035 117 43 85 52
cat_boundaries=0 1 2 3
cat_threshold=4 16 68
is_linear=0
shrinkage=0.4


Tree=7
num_leaves=31
num_cat=4
split_feature=3 0 4 4 4 1 4 4 1 4 1 1 1 1 5 1 0 1 5 4 4 1 1 4 4 4 4 0 1 1
split_gain=2.39149 2.00592 1.68842 3.44647 1.59073 1.55709 1.35229 3.38988 1.23983 3.09036 1.21522 1.1258 3.45102 1.10994 2.72856 2.44871 1.88143 1.66096 1.14747 0.98738 0.878194 2.34647 1.26846 1.18699 1.01627 4.25931 2.78313 1.26955 1.58541 1.4804
threshold=0 1 7.1710000000000003 25.160800000000002 30.565550000000005 26.500000000000004 14.085050000000001 15.030550000000002 35.500000000000007 58.13535000000001 36.500000000000007 53.500000000000007 50.500000000000007 19.500000000000004 1.0000000180025095e-35 5.5000000000000009 2 15.500000000000002 1.5000000000000002 8.0255500000000008 51.585150000000006 30.500000000000004 47.500000000000007 60.515300000000003 7.1710000000000003 7.1758500000000014 7.5903000000000009 3 44.500000000000007 36.500000000000007
decision_type=1 1 2 2 2 2 2 2 2 2 2 2 2 2 2 2 1 2 2 2 2 2 2 2 2 2 2 1 2 2
left_child=1 2 -1 5 -5 -4 -3 -8 -9 -10 -6 12 13 14 16 -16 -2 -18 20 -19 22 -22 24 -23 -15 -26 -27 28 29 -28
right_child=11 6 3 4 10 -7 7 8 9 -11 -12 -13 -14 18 15 -17 17 19 -20 -21 21 23 -24 -25 25 26 27 -29 -30 -31
leaf_value=-0.15274979564511146 0.19115054889635497 0.52526149683395484 0.15301031081425168 -0.23789386071362612 0.22536363584755456 0.60317158322329389 -0.36714330321278577 0.41946527090396801 -0.40990275414909622 0.42462920454302949 -0.063680148416537907 -0.17093343386591331 0.40809104214902625 0.0046353574960151071 -0.039791873969776709 -0.37858376112256154 0.21633005660866989 -0.068121971107478321 0.20990837273869639 -0.32860911044309671 -0.16669096440529141 0.44006615310479935 -0.22338831463048403 0.095277949492510339 -0.46544146285276988 0.35833019412183015 -0.078527613947048935 0.027331760887826486 0.17805195942328675 -0.29397328510557541
leaf_weight=5.5550433397293117 6.1564794518053532 2.2196388840675345 2.390568099915984 3.5281677544116965 4.5489106625318509 2.5311000756919384 1.5233356803655604 4.5109974779188633 1.1953735016286375 1.7484281025826929 4.7652057260274887 7.4726128429174414 3.0705586075782767 150.27750100940466 6.289485350251196 7.4646531250327826 2.6927407234907177 10.004804119467734 3.7983895130455485 3.0344114862382403 3.3571720197796804 2.8252829872071743 4.6708780378103247 3.6764469891786575 3.8312225230038157 2.8147246688604346 20.392163459211595 20.140759967267513 2.9130332618951789 6.8061789870262137
leaf_count=42 40 14 18 19 22 23 8 49 13 35 28 79 24 959 42 64 14 81 32 31 27 20 42 39 41 17 186 119 20 59
internal_value=0 0.0826111 0.0397238 0.099913 -0.00915876 0.384518 0.245697 0.176581 0.287688 0.0857554 0.0774856 -0.0171928 -0.0134954 -0.0184524 -0.0840459 -0.223661 0.00368473 -0.0696774 -0.00808487 -0.128741 -0.0118197 0.104878 -0.0172505 0.245103 -0.0126031 -0.0581327 -0.0287266 -0.0504064 -0.102404 -0.132441
internal_weight=0 34.5168 23.319 17.764 12.8423 4.92167 11.1978 8.97813 7.4548 2.9438 9.31412 271.689 264.217 261.146 35.6426 13.7541 21.8884 15.732 225.504 13.0392 221.705 9.8589 211.846 6.50173 207.176 56.8981 53.0669 50.2521 30.1114 27.1983
internal_count=2207 271 152 110 69 41 119 105 97 48 50 1936 1857 1833 272 106 166 126 1561 112 1529 86 1443 59 1401 442 401 384 265 245
cat_boundaries=0 1 2 3 4
cat_threshold=4 4 2 4
is_linear=0
shrinkage=0.4


Tree=8
num_leaves=31
num_cat=2
split_feature=2 1 0 1 1 1 4 4 1 6 4 4 1 4 4 4 4 4 1 1 1 4 4 4 1 4 1 1 1 1
split_gain=1.19659 4.47726 2.62002 2.05171 2.04595 2.68412 1.98803 1.5906 1.07206 2.18773 1.86381 1.6479 2.45768 1.45947 4.82649 2.79359 1.21981 1.51364 0.95852 1.20275 1.06525 0.963165 1.96714 1.4483 1.03033 0.811012 0.761705 1.46582 1.21215 0.725707
threshold=0 13.500000000000002 1 2.5000000000000004 24.500000000000004 27.500000000000004 14.550000000000002 31.595650000000003 5.5000000000000009 1.5000000000000002 21.005300000000002 18.150450000000003 26.500000000000004 14.050100000000002 9.0954000000000015 15.030550000000002 8.0255500000000008 8.1305500000000013 17.500000000000004 18.500000000000004 16.500000000000004 7.1710000000000003 7.1758500000000014 7.1507000000000014 29.500000000000004 148.63025000000002 30.500000000000004 35.500000000000007 32.500000000000007 25.500000000000004
decision_type=1 2 1 2 2 2 2 2 2 2 2 2 2 2 2 2 2 2 2 2 2 2 2 2 2 2 2 2 2 2
left_child=1 -1 4 -2 6 -6 -3 -4 -5 11 -11 13 -13 14 16 -15 18 -18 20 -20 -10 23 -23 29 -24 -9 -7 28 -28 -21
right_child=3 2 7 8 5 26 -8 25 9 10 -12 12 -14 15 -16 -17 17 -19 19 21 -22 22 24 -25 -26 -27 27 -29 -30 -31
leaf_value=0.43723561614357642 -0.319878450850406 -0.0022431707333203164 0.063761626254825468 0.22858358293847553 0.25101247969148227 -0.1367155467852926 -0.38062939248901717 0.41891708544251566 0.015951122713825202 -0.011419863195170334 -0.41621985752075219 -0.10276776632338146 0.43996333545130811 -0.46234876004344899 0.35835667276969829 -0.014293772008124497 -0.37925705742693461 0.033049083901590358 0.19354194012136872 0.025471799875575143 -0.34873414158757576 -0.35650262889000284 -0.12331836978639302 0.16491207404823638 0.1433439847054174 0.13020765128044218 0.019887072332962392 -0.043483241363024228 0.3448427465345677 -0.034362917695972321
leaf_weight=4.2891807518899432 3.5825854092836371 4.2388557456433755 12.852008283138277 2.8607480973005286 6.3288721479475489 8.2926373966038209 4.6683850772678852 3.983491698279976 2.3469461277127257 3.3331495411694041 4.0084727443754673 2.3400889281183472 3.1081038862466812 3.3585706837475282 5.5755886137485495 6.6053694747388363 3.2770663648843756 2.5202557742595673 4.5934778936207286 49.401558075100183 2.8231045790016651 3.8843483533710232 5.9819308295845968 7.6401773467659941 3.7853470370173454 2.5554652139544487 4.4428255558013907 28.876129658892751 3.1310233995318413 94.416399054229259
leaf_count=32 22 36 96 21 39 44 35 105 16 19 45 24 21 26 38 44 28 17 32 305 29 50 47 45 31 33 27 204 23 673
internal_value=0 0.0349912 0.0176624 -0.0188267 -0.0236601 0.00719249 -0.20056 0.145478 -0.0146245 -0.0179535 -0.232438 -0.0101449 0.206851 -0.0161703 -0.00819093 -0.165321 -0.0195028 -0.200016 -0.0135185 -0.00834954 -0.183185 -0.0139663 -0.115727 -0.00479419 -0.0199723 0.306088 -0.027296 -0.00240226 0.154224 -0.0138097
internal_weight=0 83.6589 79.3697 215.443 59.9787 51.0715 8.90724 19.391 211.861 209 7.34162 201.658 5.44819 196.21 186.246 9.96394 180.671 5.79732 174.873 169.703 5.17005 165.11 13.6516 151.458 9.76728 6.53896 44.7426 36.45 7.57385 143.818
internal_count=2207 674 642 1533 408 337 71 234 1511 1490 64 1426 45 1381 1311 70 1273 45 1228 1183 45 1151 128 1023 78 138 298 254 50 978
cat_boundaries=0 1 2
cat_threshold=22 4
is_linear=0
shrinkage=0.4


Tree=9
num_leaves=31
num_cat=4
split_feature=3 4 4 4 0 4 4 4 4 4 1 1 4 1 4 4 0 4 4 5 1 4 1 5 1 4 1 0 1 1
split_gain=1.17975 1.45337 1.942 2.88329 1.25494 1.15729 1.55902 2.88954 1.9423 1.37704 1.4522 1.24697 1.2102 1.18766 3.49154 2.55108 1.4278 1.03957 1.84696 0.906184 0.844682 1.64557 0.832296 1.07475 0.839353 0.712637 0.750918 1.12022 0.597158 0.59634
threshold=0 148.63025000000002 79.565000000000012 60.515300000000003 1 26.025000000000002 39.125450000000008 51.585150000000006 31.060750000000002 29.010300000000004 39.500000000000007 14.500000000000002 12.155750000000003 32.500000000000007 21.565350000000006 25.590350000000004 2 11.030900000000001 15.005000000000001 1.0000000180025095e-35 35.500000000000007 39.040000000000006 35.500000000000007 1.0000000180025095e-35 24.500000000000004 8.1305500000000013 22.500000000000004 3 52.500000000000007 25.500000000000004
decision_type=1 2 2 2 1 2 2 2 2 2 2 2 2 2 2 2 1 2 2 2 2 2 2 2 2 2 2 1 2 2
left_child=4 2 3 5 17 12 8 -8 9 10 -7 -10 19 14 -14 16 -15 29 -19 25 -6 -22 24 -24 -20 28 -27 -28 -2 -1
right_child=1 -3 -4 -5 20 6 7 -9 11 -11 -12 -13 13 15 -16 -17 -18 18 22 -21 21 -23 23 -25 -26 26 27 -29 -30 -31
leaf_value=0.014198407776091056 -0.0031069220467726537 -0.28132002542109052 0.29060562991194572 -0.39446824897096916 0.31334047797515041 0.37738327912467251 -0.43979902480032662 0.13197416910430809 0.71038786464909798 -0.13981778281760912 0.00013296679183817344 0.23157747854998112 -0.23714520797128893 -0.07872637181144819 0.12366486781402136 -0.29903991377439193 0.25785438012610845 0.42676909839512578 -0.011425749009150743 -0.16458623438622888 -0.21365732879170696 0.41476213166790815 -0.22448607263557571 0.087408325658920108 0.25971768376297083 0.21979585579963407 -0.11442752787399504 0.21136727559662735 -0.17524091683335841 -0.22928650685136931
leaf_weight=3.3360135816037682 177.2704333178699 3.1818007193505755 3.4085806533694258 3.1366474479436866 5.1542509552091387 3.0116980625316518 2.2860649619251481 3.7078751064836979 1.349832785315811 3.4276330713182688 3.5654272548854351 2.4494565464556217 16.154530661180619 3.269116284325718 5.8434311486780635 3.017069410532712 5.2630930542945853 2.2066293619573143 3.5426367931067926 5.5072592552751294 1.6549590378999712 1.1165020912885664 3.4361700713634491 3.6405948102474213 3.7712991833686829 4.6759179532527906 4.3081334717571735 2.7771964594721794 3.2843438014388076 3.1096194237470627
leaf_count=26 1215 32 33 41 68 28 31 28 13 27 23 28 115 51 57 27 31 16 21 37 11 40 24 19 20 34 37 17 31 26
internal_value=0 -0.0121662 -0.00931519 -0.0133352 0.0606917 -0.00857551 0.0842446 -0.0860979 0.15821 0.0657482 0.172878 0.401692 -0.016518 -0.0867678 -0.141301 0.0171025 0.128893 0.0330659 0.0860116 -0.00460486 0.217586 0.0395058 0.0337608 -0.0640341 0.128384 -2.35553e-05 0.0953799 0.0132724 -0.00623809 -0.103268
internal_weight=0 260.896 257.714 254.305 30.9687 251.169 19.798 5.99394 13.804 10.0048 6.57713 3.79929 231.371 33.5472 21.998 11.5493 8.53221 23.043 16.5973 197.823 7.92571 2.77146 14.3907 7.07676 7.31394 192.316 11.7612 7.08533 180.555 6.44563
internal_count=2207 1936 1904 1871 271 1830 178 59 119 78 51 41 1652 281 172 109 82 152 100 1371 119 51 84 43 41 1334 88 54 1246 52
cat_boundaries=0 1 2 3 4
cat_threshold=4 4 4 4
is_linear=0
shrinkage=0.4


end of trees

feature_importances:
age=123
fare=121
class=18
gender=15
sibsp=14
parch=6
embarked=3

parameters:
[boosting: gbdt]
[objective: binary]
[metric: binary_logloss]
[tree_learner: serial]
[device_type: cpu]
[linear_tree: 0]
[data: ]
[valid: ]
[num_iterations: 10]
[learning_rate: 0.4]
[num_leaves: 31]
[num_threads: 0]
[deterministic: 0]
[force_col_wise: 0]
[force_row_wise: 0]
[histogram_pool_size: -1]
[max_depth: -1]
[min_data_in_leaf: 20]
[min_sum_hessian_in_leaf: 0.001]
[bagging_fraction: 1]
[pos_bagging_fraction: 1]
[neg_bagging_fraction: 1]
[bagging_freq: 0]
[bagging_seed: 3]
[feature_fraction: 1]
[feature_fraction_bynode: 1]
[feature_fraction_seed: 2]
[extra_trees: 0]
[extra_seed: 6]
[early_stopping_round: 0]
[first_metric_only: 0]
[max_delta_step: 0]
[lambda_l1: 0]
[lambda_l2: 0]
[linear_lambda: 0]
[min_gain_to_split: 0]
[drop_rate: 0.1]
[max_drop: 50]
[skip_drop: 0.5]
[xgboost_dart_mode: 0]
[uniform_drop: 0]
[drop_seed: 4]
[top_rate: 0.2]
[other_rate: 0.1]
[min_data_per_group: 100]
[max_cat_threshold: 32]
[cat_l2: 10]
[cat_smooth: 10]
[max_cat_to_onehot: 4]
[top_k: 20]
[monotone_constraints: ]
[monotone_constraints_method: basic]
[monotone_penalty: 0]
[feature_contri: ]
[forcedsplits_filename: ]
[refit_decay_rate: 0.9]
[cegb_tradeoff: 1]
[cegb_penalty_split: 0]
[cegb_penalty_feature_lazy: ]
[cegb_penalty_feature_coupled: ]
[path_smooth: 0]
[interaction_constraints: ]
[verbosity: -1]
[saved_feature_importance_type: 0]
[max_bin: 255]
[max_bin_by_feature: ]
[min_data_in_bin: 3]
[bin_construct_sample_cnt: 200000]
[data_random_seed: 1]
[is_enable_sparse: 1]
[enable_bundle: 1]
[use_missing: 1]
[zero_as_missing: 0]
[feature_pre_filter: 1]
[pre_partition: 0]
[two_round: 0]
[header: 0]
[label_column: ]
[weight_column: ]
[group_column: ]
[ignore_column: ]
[categorical_feature: 0,2,3]
[forcedbins_filename: ]
[objective_seed: 5]
[num_class: 1]
[is_unbalance: 0]
[scale_pos_weight: 1]
[sigmoid: 1]
[boost_from_average: 1]
[reg_sqrt: 0]
[alpha: 0.9]
[fair_c: 1]
[poisson_max_delta_step: 0.7]
[tweedie_variance_power: 1.5]
[lambdarank_truncation_level: 30]
[lambdarank_norm: 1]
[label_gain: ]
[eval_at: ]
[multi_error_top_k: 1]
[auc_mu_weights: ]
[num_machines: 1]
[local_listen_port: 12400]
[time_out: 120]
[machine_list_filename: ]
[machines: ]
[gpu_platform_id: -1]
[gpu_device_id: -1]
[gpu_use_dp: 0]
[num_gpu: 1]

end of parameters
